//Numpy array shape [16, 64]
//Min -1.497463345528
//Max 1.267085194588
//Number of zeros 0

#ifndef W2_H_
#define W2_H_

#ifndef __SYNTHESIS__
fc1_weight_t w2[1024];
#else
fc1_weight_t w2[1024] = {0.0632245764, -0.0950795412, -0.0027294753, -0.0359252281, 0.1721806675, -0.0831647590, 0.2630997002, -0.0017380096, 0.2602624595, -0.0409155078, -0.1897104979, 0.0003494390, 0.2377582043, 0.0000524612, 0.4792068005, -0.0961777493, -0.2288333476, 0.0017716240, -0.0003979160, -0.3045013249, -0.0086234780, -0.3362426758, 0.0011739598, 0.1140284762, 0.0011739715, 0.2147219777, -0.1373913288, -0.0027373380, -0.0250422135, 0.0004083199, 0.8721348047, 0.0635688156, -0.0010163977, 0.0729198605, -0.0001444912, -0.0000795723, -0.0005940931, -0.0001871725, -0.1587738544, -0.0000031149, -0.2298455089, 0.0105912322, 0.0847664550, 0.0005952816, 0.0337465182, 0.0005946516, 0.3453942537, 0.0021514059, 0.0128374984, 0.0001098813, 0.6880503297, 0.1432092637, 0.5803356171, 0.2600177228, 0.0002070507, -0.0606952421, -0.1181725934, -0.0209046546, -0.1520164460, 0.0165759604, -0.0885220468, 0.0127206855, -0.7407908440, -0.0623075701, 0.0434560813, -0.1277145743, 0.1552278548, 0.4782309830, 0.1630478650, -0.0002708874, 0.1530642658, 0.0004676395, 0.0497184135, 0.0005185917, -0.2465976924, 0.1432319731, 0.0225762688, -0.0193774831, -0.4591129124, 0.0139836827, 0.3014003038, 0.1806811392, -0.0126721561, -0.0403211489, -0.0088602463, -0.0003745010, 0.0509599745, -0.2031624019, -0.0424880870, 0.1894232631, 0.0871701017, -0.0008847899, 0.0480019338, -0.0003763900, -1.2095047235, -0.1128018945, 0.1641964763, 0.0000398599, 0.0002211391, -0.3815884590, -0.1617135257, -0.0697329268, -0.3177634180, 0.2057795525, 0.2817251682, -0.1331213564, 0.4129754603, -0.2579956353, -0.0870841965, -0.0011072004, -0.8560481071, 0.2075178921, 0.3301402628, 0.0744861290, 0.0004800114, 0.0002463407, 0.0004747038, 0.0003431310, 0.0003879751, 0.0002676689, 0.0380055867, 0.1721497327, -0.0002056950, -0.0003287248, 0.2240958065, -0.1452836543, -0.4206143320, -0.0001329811, -0.0009213578, 0.0678440630, 0.0965477154, 0.0000407114, 0.0004929933, 0.0001362012, 0.0000691106, -0.0003949331, -0.0155322114, -0.0988103449, -0.1195434108, -0.0663477033, -0.1860686839, -0.0245186277, -0.7407073379, -0.2583829761, -0.1532294154, 0.2069561630, 0.0021177565, -0.0000444059, 0.0000946725, 0.0002347084, -0.0797273442, -0.0001302606, -0.0003854499, 0.0000596819, -0.0008471577, -0.2935145497, -0.0286192410, 0.0000736502, 0.1362958699, -0.1546509415, 0.1667567492, -0.3902275264, -0.0725889727, 0.0000313138, -0.0455187671, -0.0955629945, -0.0004667713, -0.0006767281, -0.0874816254, -0.0006939518, -0.0003184024, 0.1112951934, -0.0014612761, -0.0020234452, -0.0000628469, 0.0833306834, 0.0239660088, -0.1587984711, -0.0001319954, -0.3302752376, 0.0003748629, -0.1622438133, 0.0000759180, -0.1904519051, 0.0000747938, -0.1082514375, -0.1862744689, 0.0035364649, -0.1195670068, 0.0428555831, 0.4187555015, -0.0720790029, -0.0010413610, -0.0001542108, 0.0002560132, -0.2151546925, -0.1325892955, -0.0805716813, -0.0005257705, -0.0115072196, 0.0197529532, 0.2246706039, 0.2163272500, 0.2334391177, 0.2247182131, 0.0002559899, 0.1516468823, 0.0004299697, -0.0010292772, -0.2542759180, 0.0000081464, -0.0000048585, 0.0968003869, 0.0005114542, 0.0008767096, 0.0244770125, 0.1518062651, -0.0752218142, 0.0027178486, 0.0253327526, 0.0014869502, 0.0013650453, 0.0369025320, 0.0204478297, 0.0137887634, 0.0031833721, 0.4282310903, -0.2248259783, 0.3014755547, 0.0003387187, 0.0316882730, -0.2076822817, 0.0005103771, -0.1549355984, 0.0071500498, 0.0005309416, 0.0009739985, -0.0121047329, 0.0000508890, 0.0000652923, 0.1527305841, 0.0267570019, 0.0003491005, 0.0004534989, -0.0177587587, 0.0001643726, -0.1279688627, 0.1859869063, 0.0003440327, 0.0008509335, -0.2573522329, 0.0002576849, 0.0004083750, 0.0009675610, 0.0006009523, -0.6854780316, 0.0162911192, 0.0010813865, -0.2002288997, -0.1611695886, -0.1160533726, 0.0525342003, 0.1786774993, 0.0001880248, 0.0002485563, 0.0008830627, 0.0000697065, 0.1623833179, 0.0350044370, 0.0013605738, 0.8403060436, -0.0016239287, 0.1181032583, 0.2594588101, -0.2847846150, -0.7709562182, -0.3406621218, 0.0002575516, 0.0094883749, 0.0815440789, -0.1205161437, 0.1695370972, -0.0084659420, -0.2024860084, -0.1248233765, 0.0067613316, 0.7112562656, 0.1754020154, 0.4282082021, 0.4467159212, -0.1586585790, -0.4377107620, -0.2600179911, 0.0193037726, 0.1634766310, -0.0812768042, -0.0003545046, -0.0007788448, -0.0251360554, 0.0352457613, 0.1790920347, -0.0105372649, 0.6191939712, 0.0287297238, -0.4187092185, 0.1623013765, -0.3637649417, -0.0002313491, -0.0001960364, 0.0087870052, 0.2491071075, -0.0004747930, -0.1489475518, 0.2294803560, 0.0794532001, -0.0002050224, 0.0001879215, 0.0830723569, 0.3960888386, 0.1216909215, -0.2022124976, -0.0840580836, 0.0000825244, -0.3529857397, 0.0001414419, -0.0926083252, -0.0595261827, -0.0014860164, -0.0001321877, -0.0021916430, 0.2946492732, -0.0543081611, -0.0034317225, -0.1805546880, -0.5390214920, -0.1248123795, -0.2885096967, -0.1656420976, 0.0081090303, 0.0005439547, 0.1234907731, 0.0002637727, -0.1658448130, 0.0021766943, 0.2526936829, 0.3439523876, -0.3155777752, -0.0002771128, -0.0097629596, 0.2126043141, -0.3594049513, -0.0851939693, -0.1191041693, -0.0002203088, 0.0016129904, 0.0347550288, -0.0000240009, 0.0005975152, -0.0000964975, 0.3097497225, 0.1099168509, -0.1415762007, -0.3145165741, -0.3522467315, -0.3187400103, 0.0138307652, -0.4844335616, 0.0641433522, 0.0708919838, -0.1120683849, 0.0011315036, -0.3975408971, 0.3933973908, 0.0494949445, 0.0988383368, -0.0549946427, -0.2243218422, 0.2081789374, 0.0156989358, 0.0134302899, -0.2740342021, 0.0082979817, 0.7157512903, -0.0005003967, -0.0006841457, -0.0266894381, 0.0007020904, 0.2097231895, -0.0000826733, 0.1180894077, 0.0400792062, 0.1043904796, -0.1667371243, 0.0107743368, -0.1093898192, -0.0381290354, -0.0699219629, 0.1117165834, 1.2670851946, 0.1747117490, -0.0648844615, -0.2268487215, -0.0465343781, -0.0001263915, -0.0443282574, -0.3402555287, 0.1316832453, -0.2006751746, 0.0004846330, -0.0968992412, -0.0000280320, 0.1897201389, 0.0003368484, -0.0116916504, -0.2122012824, -0.0005321077, 0.0002489681, 0.0363557823, -0.0001134497, 0.0001766622, -0.2565745413, 0.0118778273, -0.2111379355, -0.0003853758, -0.0033139943, -0.0006764257, -0.1268679351, -0.3021167219, -0.0683723241, -0.0728818551, 0.0802906528, 0.1895580441, -0.2643569410, 0.0000770660, 0.0584177636, 0.3908314407, -0.0784104988, -0.0004975063, -0.0009720276, 0.0001483905, -0.0005261500, -0.2543321252, -0.2882015407, -0.3593370914, -0.0003801852, -0.0000804722, -0.0002271818, 0.3101569414, -0.4278714061, -0.2572377324, -0.8370797634, -0.3875647187, -0.5332803130, 0.0620526709, -0.2052885741, 0.0000145704, 0.0059352149, 0.2311703116, -0.1931485385, 0.0832711905, -0.1527424604, 0.1083282605, -0.0951588973, 0.0173074119, 0.1061844155, 0.0620069243, -0.1849415451, 0.4800089896, -0.3056295514, 0.0248632785, 0.0003237883, 0.1370472014, 0.1683304012, -0.2278718948, 0.3235445023, -0.2328467667, 0.1559861600, -0.1080914810, 0.2198042870, 0.1116477251, -0.3371289074, -0.0001332993, -0.0004574899, -0.6898962855, -0.1192444563, -0.0730389506, 0.0005759856, 0.1528540999, 0.1006838530, -0.0032383637, 0.0129770562, 0.0002336618, 0.0006563042, 0.0007064063, -0.0000475148, -0.4695207477, -0.0659972876, 0.0030270664, 0.1678226441, 0.0000006549, 0.0002110013, -0.0000366874, 0.1663458645, 0.0002185728, -0.0394747630, -0.0367944948, -0.0000302960, -0.0002446581, -0.0000931748, 0.0509335324, -0.4178585708, 0.0001012843, -0.1005386114, 0.0146896811, 0.1243328229, 0.3426528871, 0.1548937559, -0.0330911018, -0.0005728659, 0.1243530810, -0.1089700013, -0.2777480781, 0.1924386472, -0.2557373941, -0.1190328002, 0.1036206409, -1.0063735247, 0.0152683221, -0.1561532021, -0.0007462880, -0.2911642790, -0.7190915346, -0.2915337086, -0.0000356466, -0.0985703692, -0.0101782437, -0.0002713501, -0.0004743539, 0.0384088457, -0.4308030605, -0.0635654628, -0.1221526861, 0.0002452311, -0.0037759284, -0.2592038214, -0.1199930385, -0.1845115870, 0.0074200328, -0.0045987354, -0.2688800097, 0.0059790215, -0.0669266582, 0.0296059120, -0.0002137418, 0.1410721540, -0.1610439867, 0.1691960245, -0.0433970243, 0.3037522435, -0.3800251782, -0.0497808978, -0.1738650352, -0.2901223898, -0.9084988236, -0.3616941869, 0.0000073198, -0.0575523153, 0.1175354645, -0.0080358293, -0.1864590645, -0.0196430758, 0.2414791733, 0.1415717900, -0.1499707699, 0.0000046791, -0.1729140282, 0.0212899372, 0.1003203690, 0.1062882319, 0.1606362313, 0.1000452861, 0.0000913122, 0.0133924484, 0.0007965288, 0.0001264731, 0.0980169252, 0.0855686367, -0.0559790619, 0.0235743467, -0.0490970127, -0.5736119151, 0.2232094407, 0.0194583032, 0.0548939295, 0.3630378544, 0.3682275414, 0.1057059839, 0.3312623799, -0.0003617566, -0.1221507639, -0.0454612635, 0.0000738252, -0.1284803897, -0.1660942286, 0.1553729922, 0.0005692672, 0.7400621772, 0.1745805889, 0.2067733407, -0.4055857360, 0.0695476755, 0.0178715363, 0.0610842668, 0.0116945412, -0.0010675645, -0.0367485434, -0.0010672273, -0.0002381864, 0.2363715768, 0.0258650314, -0.0002324147, 0.1340975761, -0.2642638683, 0.5501024127, 0.0376030020, 0.9817775488, 0.0850621685, 0.0000608597, 0.2159600109, 0.0005349861, -0.0000820435, -0.0001271854, -0.2030740231, -0.0250595212, 0.0004075634, -0.0972705781, 0.0005337831, 0.0000239051, -0.2893618345, -0.0263571516, -0.0419595763, 0.0436637551, 0.4842122495, 0.2212792188, 0.0464293882, 0.0001304595, 0.0623679906, 0.0406390317, 0.0011302470, 0.0406951979, -0.1906547248, 0.1450515836, -0.2102648020, 0.0000889212, -0.7442738414, 0.4557939470, 0.0695286542, -0.0000022172, -0.0001071161, 0.2409828156, 0.0006472064, -0.1744742692, 0.0008760947, 0.0002877095, 0.2516320348, -0.0005757820, -0.1472973675, -0.0005135284, 0.0001514697, -0.0036776962, 0.0007057738, -0.0181235764, 0.0009358525, -0.0002445881, 0.2102780044, 0.0002564843, 0.4315058589, 0.1414109170, -0.0735476613, 0.0000823562, -0.1296894103, 0.2478111237, -0.0017194020, 0.0006541437, -0.0012020530, 0.0023630273, 0.1005502343, -0.0008554086, -0.0004136261, 0.2293367684, 0.0011127113, -0.0002174849, 0.0017757191, 0.0012045043, 0.0424703062, 0.1094656885, 0.1094143540, 0.0757612810, -0.1612062603, -0.5875639915, -0.0003257612, 0.0315411165, -0.0000577732, -0.0271999966, 0.1720775515, 0.1599434167, 0.0000879846, -0.3698565364, 0.0907398835, -0.0002780421, -0.1275633574, -0.0899348781, 0.0574354567, 0.0764836296, -0.1122163311, -0.1156165376, 0.2416286021, -0.0001918886, -0.8045511842, 0.0202879012, -0.0001141921, 0.0004054610, -0.0006461987, 0.3315387070, 0.0261979718, -0.0001286881, 0.0000891217, -0.0605355464, 0.0000897492, -0.1791341454, 0.0005873986, 0.0003521202, 0.0007267027, -0.0340924859, -0.0004674050, 0.1863205135, -0.5363661647, -0.3777440488, -0.4338848293, -0.0560865626, -0.3736080527, 0.1286611855, 0.1406456530, -0.0363130420, -0.0002310434, 0.2292952687, -0.2278921753, 0.0998678803, -0.0306642819, -0.0920035243, 0.2538257241, 0.3212906718, -0.0003409274, 0.0007424799, -0.0001119196, -0.0002838721, -0.0507684425, -0.0008485509, -0.0007535914, -0.0001354089, -0.0007582479, 0.2680796385, 0.0261759963, 0.0002919888, 0.0238370281, 0.0001134162, -0.0005813322, -0.0457537137, 0.0009783795, -0.0007260172, -0.0000436409, -0.1498803347, 0.0002405935, -0.2633883953, 0.0003737523, -0.2897736132, 0.0003752238, 0.0380803160, 0.0001949523, -0.0538430288, 0.0002069942, -0.0001047458, 0.5762119293, -0.0736946166, -0.0004064462, 0.0048921709, 0.3666807413, 0.3715333343, 0.0446037799, 0.0005764862, 0.0006020131, -0.2230714560, 0.0006020594, 0.0001604434, -0.1095060110, 0.0389248095, -0.0002260345, 0.0001118419, 0.5505057573, -0.3891169429, 0.0001020013, 0.0007334551, -0.0000227013, 0.3821999729, 0.0003387171, 0.0521797240, 0.0001841168, 0.1854848117, 0.0545527264, 0.1892523319, 0.0832362175, 0.0002677540, 0.0002472340, 0.0001316314, 0.0001193589, -0.2644539177, -0.1832003891, -0.1181580201, 0.1689227521, 0.0004556004, 0.0004774810, 0.1998933107, 0.0021110580, -0.0221982449, 0.0021102976, -0.1454077810, -0.0085004624, 0.0000737198, -0.3233074248, 0.1491547823, 0.0221287385, 0.2026189417, -0.0010030391, 0.1303161085, -0.0001634344, 0.0002361916, 0.0002134698, -0.0001235238, -0.0178443305, -0.2925295532, -0.0918185636, -0.3072290123, 0.0364476852, -0.2340971977, 0.0009764617, -0.0021787637, 0.0000537731, 0.0198867805, -0.1262876987, -0.0943955630, 0.1924784929, -0.1559004635, 0.1329486668, -0.2301705778, 0.2159103006, 0.0044791242, -0.1288926899, -0.0598375425, 0.1181497872, -0.0179471970, -0.1613530070, 0.0391084217, -1.4974633455, -0.1021148860, 0.0773482397, 0.0864153802, -0.6391614079, -0.1228711605, -0.4481034875, -0.0351732150, -0.0175303649, -0.0064875898, 0.0096493317, -0.0336054973, -0.0003185151, -0.0516082682, 0.1449247301, -0.1270695031, 0.1024513915, 0.3285867572, 0.0006383243, 0.5002817512, 0.1456104964, 0.0238387380, 0.3407595754, -0.1470607072, -0.2468726337, 0.1599719077, 0.0924744681, 0.0001689793, 0.0248522572, 0.0242872313, 0.2260208577, 0.0008151480, -0.6372199655, 0.0545409769, -0.0802323893, -0.0127889710, 0.0003074784, 0.0005555204, 0.0009738919, 0.0075721918, 0.0031167518, 0.0041731084, 0.0031183863, -0.2148403376, -0.0540511385, -0.0001558855, -0.0324594155, 0.0001858330, 0.0044609755, 0.0005704944, -0.1126535907, -0.0395031162, 0.0264078174, 0.7246858478, -0.0008448183, -0.0682369322, -0.0398554541, -0.3506592512, 0.2126267850, 0.4230614007, -0.0009432221, -0.0884854868, -0.3823323548, 0.1890614778, 0.9910863638, -0.1460404396, -0.2748561800, -0.0001665797, 0.0000602615, -0.4144048095, -0.1343145818, -0.1906263381, -0.0000395132, -0.0002930457, -0.0694352984, -0.1145873740, -0.1166703328, -0.0905559659, 0.0914242566, 0.1880387515, -0.0005669338, -0.0007005623, -0.2185321301, 0.0741000324, 0.2651867270, 0.0836277679, 0.2998485267, 0.0004762740, 0.0256988630, -0.0004801298, 0.0275981165, 0.0002786795, 0.1120385975, 0.0004454251, 0.0358458310, 0.0858568475, -0.5772931576, 0.3659268916, 0.0818180814, -0.0000784585, 0.1127425209, 0.3699751794, 0.4583654106, -0.0373870879, 0.0264938399, -0.1375321150, -0.0769362375, -0.3110102415, 0.0050859326, -0.0029389814, 0.0004679445, -0.0051243869, -0.6776962876, -0.0107205929, 0.4178169966, 0.2585523129, -0.1324520409, -0.0820484012, 0.0001303919, -0.1715082526, -0.0005189365, -0.0159907825, -0.1334277689, 0.1598571688, 0.0848685503, 0.0033154017, -0.0000497571, -0.0002225246, 0.0267941933, -0.3498421609, 0.0005161274, 0.0000396084, 0.5509917140, 0.2391015589, 0.3579490483, 0.0006791045, 0.0006222280, -0.0186340958, 0.0383031480, -0.3543777168, -0.1380894184, 0.0332542807, 0.0000263143, 0.0005161234, 0.0001310856, 0.0003367677, -0.0004214975, 0.0746544525, 0.1814215034, 0.0000670295, 0.4484908581, -0.4252327979, 0.0733947158, -0.1887100190, -0.0523018874, 0.0005436146, 0.1687924713, 0.2489780635, -0.2264522463, 0.0008095817, -0.0001812315, -0.0000166680};
#endif

#endif
